14 16
AUTORIZACAO -0.027393375 -0.019267004 0.023863634 0.0072506266 -0.027196731 -0.005415375 -0.020665817 -0.022323333 -0.027043452 -0.025634652 0.0146422265 0.030664943 -0.005290731 0.019776532 -0.0016642848 0.00058675965
DESAUTORIZACAO -0.020822419 0.024768451 -0.009058906 -0.029598555 -0.013526558 -0.027848683 -0.012431747 0.0036960742 -0.005963619 0.002860777 0.0009338484 -0.008191888 0.0029848358 0.0028923887 0.016274579 0.0027206966
DEVOLUCAO 0.019494602 -0.026557632 -0.014241516 0.011097326 -0.009607999 0.026696846 -0.014138212 -0.021795372 -0.018669602 -0.030636048 0.0075600105 -0.025832642 -0.021725405 0.011014645 -0.017819133 -0.025782987
SOLICITACAO 0.009942013 0.0062411563 0.0019376718 0.014504272 0.009425897 -0.025116475 -0.017797489 0.0004821075 -0.018616129 -0.02310051 -0.003171822 -0.013321084 0.026739882 -0.025020584 -0.031202106 -0.010910227
DISTR.DIRETORIA -0.005165946 -0.015883414 -0.0226516 0.025378553 -0.013135516 -0.030439148 0.021082122 0.013889865 0.0023143552 -0.00062759925 0.010928787 -0.019129017 -0.009286788 -0.008876077 0.0068602194 -0.016200414
DISTR.SETOR -0.020988883 0.025084129 -0.0045295493 -0.0005566712 0.018121736 0.014329322 -0.0091841165 -0.016984252 0.010088426 0.006635267 -0.006194108 -0.02566811 0.025963785 0.021035828 0.008028434 0.0059758993
ALT.SITUACAOP/EMEXECUCAO -0.02712105 0.017502125 -0.015160092 -0.026627446 -0.021090616 -0.020385135 -0.025184061 0.005365281 0.011728573 0.019199394 0.030827176 0.023881216 -0.009454228 -0.009936513 -0.009502526 0.028427882
CONCLUSAO 0.018404426 -0.017240675 -0.017609736 -0.027751727 0.029196268 0.0013919901 0.01054072 0.030742705 0.0065784743 0.008983536 0.0206427 -0.01766642 0.012823795 -0.020264806 0.02869473 -0.01747872
CANCELAMENTO -0.02347047 -0.014813844 0.016272299 -0.027732164 0.010569352 0.01041318 -0.022890138 -0.010462761 0.02521942 -0.014869455 -0.015927775 0.025592593 -0.013770362 -0.0006783415 -0.02618257 -0.020596433
GERAR 0.0269914 -0.0034772707 0.007575297 -0.01888912 -0.02681934 -0.0024144645 0.020271081 0.02774294 0.014749761 -0.005516451 -0.025394695 0.015315708 -0.00341092 -0.005878903 -0.028191462 -0.013377022
PAGAMENTO -0.025919512 -0.0131203225 0.017218772 -0.019385548 -0.006954071 -0.005362457 -0.0112295095 -0.013762142 0.006957789 -0.0188817 -0.026960177 0.024845328 -0.013493359 -0.014042883 -0.025176112 0.024977384
DESENVOLVER -0.026520953 -0.02203723 -0.012463749 -0.028924845 -0.027454196 -0.0066101654 0.01824848 0.005267882 -0.01490067 0.00986422 0.029089577 0.027838336 0.007719775 0.022327289 -0.019353366 0.02300798
ENTREGAR 0.025419695 -0.013815455 -0.023864223 0.0022574055 -0.021719797 -0.02509415 -0.016263975 -0.018246382 0.019218665 0.010605148 -0.009330049 -0.0059414427 -0.030159904 0.025583824 0.027621849 0.027533969
ALT.SITUACAOP/SUSPENSO -0.02157805 0.026800962 -0.008212635 0.003701025 0.004745413 0.007966866 -0.030122042 0.004201425 -0.021804884 0.017242504 -0.028857348 0.012359366 -0.027858043 0.030299969 0.0022028282 -0.027691988
