11 16
SOLICITACAO 0.020712875 -0.009235516 0.012520591 0.016389837 -0.023561597 -0.0085663535 -0.014532296 0.0058358256 -0.014930458 -0.0028585952 -0.022958877 -0.018413862 -0.009176375 8.901768e-05 0.02861401 -0.018114002
AUTORIZACAO 0.025968585 -0.015959274 0.028060613 -0.02428894 0.0219197 -0.0029445733 0.021136984 0.0127806505 -0.005673093 -0.026671654 0.010041479 0.0009414967 0.029678855 -0.014396005 -0.01562615 -0.0009514486
DISTR.DIRETORIA 0.006437612 -0.007603797 -0.02142649 -0.0066175116 0.019862587 0.006701516 0.018759329 0.01569163 -0.025688656 -0.020564532 -0.0038919025 -0.005994354 -0.02561727 0.0131692365 -0.0023813671 -0.0061980784
DISTR.SETOR -0.01601422 -0.024039062 -0.014515989 -0.0018425249 -0.01535139 0.018381331 -0.022357818 0.0053608394 -0.030042885 0.017560188 0.013985681 0.024761245 0.028172642 -0.013628316 -0.029251061 -0.029597288
ALT.SITUACAOP/EMEXECUCAO -0.014594617 0.014339241 0.00060468685 0.017537521 -0.028983438 0.007750245 0.014893824 -0.0029909431 0.014435867 -0.027572412 0.0014759757 0.021690005 0.010738884 -0.02689483 -0.01662046 0.018405955
CONCLUSAO -0.025960868 0.006731577 -0.007867528 0.012289578 -0.025492184 -0.023733618 -0.01919314 -0.007643205 0.012485951 0.012123142 0.022439072 0.0025291634 0.020600097 -0.000973248 -0.0087206755 0.018249296
CANCELAMENTO 0.028627472 0.00092770736 -0.025154717 0.026034411 -0.027321283 0.019143095 -0.019387528 -0.008893081 -0.021093551 -0.00066771137 -0.025984341 -0.026482426 0.01366917 -0.029575257 0.020166032 0.0136889685
PAGAMENTO 0.026729539 0.020049509 -0.031110646 -0.016603649 0.0018532752 -0.012526779 -0.017399436 -0.021284137 0.02487617 -0.026912324 -0.0036322225 0.02585767 0.027690625 0.0018588196 0.030467432 -0.0076494417
DESENVOLVER 0.020987747 0.009068535 0.029266763 0.028427657 -0.015319018 -0.023539014 -0.0061093527 0.008432037 0.030934168 -0.023315648 -0.011406926 0.020351715 -0.0045301276 0.019619973 0.025749225 -0.0099117085
GERAR 0.018438408 0.016327988 0.00916301 0.03059222 -0.016403737 0.019352099 0.008770913 0.01299591 0.016720725 0.0023775585 0.00035536927 -0.020736622 0.009447476 0.00054856046 -0.021435246 -0.0057086805
ENTREGAR -0.013991892 -0.0030180567 0.027436983 0.027987557 -0.017309608 0.0011615023 -0.026483994 0.013394754 -0.024938261 0.0141494945 0.0014046959 0.020775435 0.016723225 0.024916383 -0.016086167 0.013711935
